{
    "model": "average",
    "iterations": 15,
    "train_acc": [
        0.9562193126022913,
        0.9615384615384616,
        0.9631751227495908,
        0.9662438625204582,
        0.9676759410801964,
        0.967266775777414,
        0.9682896890343698,
        0.9684942716857611,
        0.9689034369885434,
        0.9684942716857611,
        0.9699263502454992,
        0.9699263502454992,
        0.9707446808510638,
        0.9705400981996727,
        0.970949263502455
    ],
    "val_acc": [
        0.9447513812154696,
        0.9496623695518723,
        0.950890116635973,
        0.950890116635973,
        0.9502762430939227,
        0.950890116635973,
        0.9515039901780233,
        0.9521178637200737,
        0.9521178637200737,
        0.952731737262124,
        0.9533456108041743,
        0.952731737262124,
        0.952731737262124,
        0.952731737262124,
        0.9539594843462247
    ],
    "avg_weights": [
        [
            -17.132337901411333,
            0.0,
            0.0,
            0.0,
            0.0,
            0.0,
            0.0,
            0.0,
            0.0,
            0.0,
            0.0,
            0.0,
            0.0,
            0.0,
            -0.0023342861519437172,
            -0.576780529391193,
            -2.663124066445437,
            1.689928724884261,
            8.799611288407386,
            9.192331683467053,
            15.717842102410302,
            4.578551137402916,
            3.859983057502358,
            2.532293534736872,
            0.5231735252853936,
            -0.08896917316433578,
            0.026894556045150946,
            -0.003623371148674632,
            0.0,
            0.0019375077050727502,
            -0.01056000709640944,
            0.045374363064303515,
            -0.11693902247081366,
            1.3190888153046612,
            0.4624897863224425,
            -1.445356653668692,
            0.08627101406032617,
            2.954427580711929,
            0.2511190788499115,
            -0.4645728199266524,
            4.883024296120138,
            3.791139647813907,
            1.2119864893651562,
            3.2848293083668274,
            17.48921091185434,
            -19.136306866257126,
            -65.54268607387638,
            -55.02923194508763,
            -97.37185923658369,
            -25.963630994311636,
            -17.330340480085724,
            -11.852255272671474,
            -3.1496700790493355,
            0.527278741189075,
            -0.14292624021255462,
            0.021040846195293124,
            0.0,
            -0.01140670686637044,
            0.05734962998841084,
            -0.23278050042640414,
            0.38544164196967984,
            -5.668879837118137,
            -1.0288547621112596,
            8.495109129671578,
            0.8231935790936631,
            -15.66439497149912,
            19.289727954152713,
            110.48228877557298,
            93.67870075823153,
            5.091251470933857,
            -12.255995739573384,
            -89.361053368939,
            -313.76750293858294,
            -562.1433870161701,
            -532.0471167069608,
            -271.2915903273349,
            -151.55199115811544,
            31.14969060586565,
            58.73075310683684,
            46.884264087921345,
            14.337134382682596,
            -2.2342003653028426,
            0.5557178247616303,
            -0.08804161659313968,
            0.0,
            0.04660187235163854,
            -0.2481032321288165,
            1.0467723485781733,
            -2.797324258936493,
            29.963637925909236,
            24.64451400342009,
            -32.318815375917985,
            10.50774112656272,
            75.31036411243335,
            218.26756948603074,
            738.6472376992607,
            1037.100558460446,
            803.8433470737846,
            272.94354766823193,
            -125.02941401488135,
            -892.8842191594316,
            -738.8103966057492,
            -413.8462849732413,
            -598.2401942819799,
            -824.6286205280154,
            -866.2833767613504,
            -725.4455539693589,
            -398.23398500797884,
            -127.75264749758922,
            12.328060441521238,
            -3.4723407740169456,
            0.6085774294817886,
            0.0,
            0.23752179892847305,
            -1.299541748642252,
            5.428461137035422,
            -26.208661145507573,
            93.67783055300139,
            238.94671724114767,
            194.65879603384437,
            288.9069361140609,
            613.1978423385584,
            966.3413695735342,
            1302.8982015662466,
            1470.7978921778415,
            1660.5683847908358,
            489.4635550400906,
            62.40099393722264,
            -253.84776292796872,
            -455.9886400124984,
            -681.6542966597651,
            -232.5861029015565,
            -250.50755834200996,
            -1354.6763029334484,
            -1270.2254452866612,
            -914.6384989670635,
            -439.153042455098,
            -87.2505613253031,
            17.29044843478288,
            -3.9255769287940474,
            0.0,
            0.21704320500287283,
            -0.7404936341905077,
            1.695351844011666,
            37.371027167616475,
            414.4579155373862,
            876.7788956030947,
            703.6361046817443,
            556.1306511461155,
            1257.8425538291317,
            1339.8039489477635,
            680.9200849256034,
            781.0470359905029,
            804.8881798625221,
            1164.5142416628842,
            1039.6562181672173,
            202.87650067772975,
            -712.9092319923317,
            -719.2052233164862,
            -300.4321335475398,
            268.306392291908,
            -693.0748073689466,
            -1528.9962241423307,
            -1480.0030780402224,
            -1129.384281577422,
            -562.2879648964213,
            -0.7373265265219137,
            -1.4684450781016245,
            0.0,
            0.10698678478006629,
            -1.720512618157049,
            12.911120021798004,
            245.04304919062736,
            986.6443594319262,
            1582.968731634235,
            1257.91205538234,
            724.7916089937197,
            618.2930637404168,
            382.9753354860994,
            -305.79463821227796,
            -316.69234908872625,
            -73.23214302396497,
            25.324424170187992,
            1069.2347171788608,
            1082.29393705287,
            -60.46894945773282,
            143.42408317745446,
            -643.9943156729244,
            -312.7803906768392,
            -519.2349807625989,
            -1792.7282290414748,
            -2054.56027643397,
            -1885.085297401207,
            -1185.1449071969196,
            -228.8995627059918,
            32.341651789317766,
            0.0,
            0.06017385421786052,
            -1.0109172490626066,
            5.239556560309393,
            419.1379292883136,
            1150.1699729958452,
            1889.5112187633342,
            1147.772433466392,
            401.081979041388,
            -55.54289288523058,
            -114.97905877459682,
            279.52784030181306,
            497.13725205245896,
            515.8194914363224,
            86.72589971841451,
            582.4493045378715,
            524.3615524593819,
            -549.3820098919202,
            -517.6485261315983,
            -643.0258949408529,
            -460.8395958201127,
            -473.5265361134995,
            -1134.312109480504,
            -2618.6407082201213,
            -2922.638773536271,
            -1471.615385572254,
            -438.50602899133327,
            57.09968319027775,
            0.0,
            -3.3422331128656966,
            15.794363775152599,
            -58.70309132198461,
            468.3661078908273,
            1296.187341787104,
            1472.2153213091547,
            471.9409211707075,
            40.21053848853883,
            101.80339047596938,
            132.3750395403778,
            -382.8416989332785,
            -566.4716151232159,
            -545.4478039306812,
            -462.19585617595044,
            1728.7136019554227,
            2289.6242513558473,
            1745.2102115215648,
            1598.1373279770617,
            971.0618817746395,
            477.3324341596122,
            -18.817999215600764,
            -1050.712569477818,
            -2844.6236434480734,
            -3319.932381048518,
            -1866.4315885083906,
            -428.26977298675536,
            40.14095186622007,
            0.0,
            -1.084887861513062,
            4.473551975682271,
            5.662701315124806,
            360.9339995183956,
            783.801503543102,
            678.9152811919289,
            268.73828582836154,
            -594.8222795959583,
            -558.9289101781299,
            -1182.4201103397725,
            -1997.4326706939355,
            -1964.3510355910628,
            -448.8632723190035,
            1092.5703743397714,
            1625.146105999368,
            1366.7909645548718,
            2018.513628327408,
            2303.4223074811093,
            1970.6184633565013,
            1509.8394051231367,
            1134.1303928757686,
            -471.079832659243,
            -1644.0564463258181,
            -2318.2749723486218,
            -1351.4016774360555,
            -307.5152840813483,
            23.110871195172994,
            0.0,
            1.7154913000134047,
            -10.249359383352285,
            54.98586990288383,
            382.61700618043847,
            411.0334545502399,
            313.0677101995499,
            13.149775507870427,
            -1126.6878727644198,
            -1947.4977606176399,
            -2551.4305731057448,
            -2803.0436169819604,
            -2318.6072399422987,
            -1521.0855481725168,
            -910.2584331817329,
            546.9560960460337,
            1280.338758773935,
            2200.083834039824,
            2429.032155635916,
            2238.8727862462356,
            1781.020834886295,
            1368.8227427610875,
            6.111991476477515,
            -1082.4683280968154,
            -1288.9536454554345,
            -776.0155630614577,
            -363.38622805753533,
            31.97246007391934,
            0.0,
            1.7865254131138284,
            -13.138005267300434,
            54.96406321947755,
            357.36462645298377,
            241.12600460134357,
            74.33675518520481,
            -252.12574109540324,
            -1370.1572752054467,
            -3001.4749660852276,
            -3160.619017283726,
            -2618.601018222452,
            -2483.056387947304,
            -2404.6005818382373,
            -575.3407625968524,
            1530.375515683646,
            1987.5440776578782,
            1764.1587091003626,
            2020.9742622363335,
            1736.6931140993013,
            1261.6082378020167,
            767.167319086725,
            -175.8990967524942,
            -597.4626816484092,
            -195.78427326236394,
            -99.25482945622231,
            -7.859225766162835,
            -0.7158420150597272,
            0.0,
            1.2673334927937874,
            -10.423966881869642,
            41.32006255794966,
            208.48587842305187,
            -130.58961351053102,
            -551.9428344480287,
            -1196.1918995823344,
            -1749.6983534191024,
            -1499.265747545745,
            -648.9035655960454,
            -1124.442330880573,
            -1048.781892864511,
            -413.4188346638254,
            -63.85076248610382,
            1196.373470427609,
            949.448425996639,
            1247.7106645510528,
            1356.8711335782984,
            1051.6948083438724,
            864.7893336129217,
            100.53844548260788,
            -426.4735390549143,
            -442.3335487713627,
            167.63463020339597,
            142.92542349221853,
            -6.391234265529039,
            1.3912998820263496,
            0.0,
            0.2031236956336211,
            -1.9895557231777912,
            4.70956930924456,
            77.05814891717304,
            -121.0015112742031,
            -853.8002124486376,
            -1392.5539788087508,
            -1820.2779683050776,
            -439.0975984600735,
            97.14074038983325,
            -809.2719890753516,
            -1166.599211893644,
            -569.6928453913673,
            -305.97861015274026,
            576.7110458832979,
            1249.8475911464275,
            1947.8957148186555,
            1912.6085552076977,
            1032.4280911943372,
            154.87522479479242,
            231.3276135543744,
            -230.5744966496513,
            -129.0766367697582,
            188.27361934100963,
            98.82470102291096,
            -5.4084240103235475,
            0.08482936995194294,
            0.0004593027559483574,
            0.00041003058483118324,
            -0.04935926734590075,
            3.9872071849428985,
            -22.01874889828065,
            -127.62347350614287,
            -333.8035019733291,
            -729.771464604512,
            -2161.477404199496,
            -1311.2563320766812,
            -1152.8337144622828,
            -2094.174244781746,
            -2145.9336674700535,
            -238.8450911208094,
            475.1153322136539,
            751.0197691739908,
            900.938339692532,
            306.74957636255084,
            1897.8781605761124,
            694.3261567614253,
            -1047.891235071612,
            231.28996249065642,
            366.11050487888593,
            77.36302071115412,
            57.563703714523626,
            132.574533654308,
            -26.796356448469716,
            -6.695730086431937,
            0.5703203891251802,
            0.0,
            1.045255747127427,
            -52.73723148147314,
            -101.16579362072625,
            -29.685964219639796,
            -8.428321936266762,
            -278.37368196689505,
            -956.9292688771762,
            -614.5071472884,
            -797.7443245304762,
            -1464.8527351094142,
            -869.4595519157616,
            -64.53198295849558,
            1860.9421330680723,
            2180.7308629041813,
            1391.987834555587,
            22.921488437965078,
            175.46583884491838,
            407.3882428903515,
            -1159.3595590006323,
            -322.0006339609968,
            723.4028704816877,
            707.7283893220358,
            282.9784071218034,
            100.40431534758785,
            -21.610239860336183,
            -4.664676870680058,
            0.1681609325486279,
            0.0,
            8.923187225517621,
            -122.56034020199684,
            36.9056998711459,
            111.83553329688577,
            -25.43298746194257,
            -337.0979006911221,
            -88.0665825983557,
            189.501890592616,
            -295.62964221354395,
            -726.7091391034421,
            -680.3720718843401,
            -220.1259307343405,
            1376.8148268585603,
            922.7033714554746,
            -1006.6703825361157,
            -662.1000103166247,
            -330.5679105734403,
            41.74595849847345,
            231.53339435894142,
            -255.76909455746946,
            355.88825166804725,
            1230.3216826531445,
            959.4835645439866,
            -98.71362602890589,
            -108.92786354137472,
            29.65857395659329,
            -4.9927608622464,
            0.0,
            -5.564145860774883,
            71.21783502288687,
            377.9223354721527,
            614.5366401495901,
            221.80777488354127,
            -450.71498919352535,
            236.43999791802707,
            258.21595339371635,
            -199.7824636932641,
            252.63776301023086,
            695.8804895424106,
            713.3074204989186,
            203.7566275093049,
            -627.9282565510746,
            -1317.2489888102862,
            -712.4019094321693,
            -596.5318882791773,
            -81.76406766237051,
            1009.9131083137671,
            419.8140200095068,
            348.4269317638454,
            1263.2860662900316,
            697.3971147663793,
            -394.058266560977,
            -171.45127476425495,
            35.07520408300484,
            -6.032975299690322,
            0.0,
            -12.413332839942253,
            128.2188760331378,
            601.3815846329277,
            1221.4413772152411,
            289.6555063517091,
            -1059.4332627286178,
            -820.2655305318191,
            -443.2859567911178,
            -437.15671769125896,
            -270.4178373928313,
            -106.35441493055811,
            -297.52261948169587,
            -985.8896291210013,
            -598.5801001908915,
            -679.4992560208477,
            -298.74436354480434,
            -21.499507280877527,
            631.3726249465951,
            1607.7380615039992,
            1321.1066924298057,
            474.51838123579523,
            689.236526001137,
            -71.07467550569841,
            -486.99425196885295,
            -135.96319347933664,
            25.13960910871131,
            -5.272741835638174,
            0.0,
            -2.7981450704542246,
            76.46174463433955,
            646.7848294405992,
            951.5324679796284,
            -103.94883825012005,
            -1021.6726761699831,
            -1257.0257871411548,
            -934.1621081675312,
            -992.0626221849861,
            -1176.03490911649,
            -795.1500887038101,
            -324.31953692249084,
            -147.88128145672314,
            -206.2848283388144,
            76.80733761823798,
            595.0955326079561,
            1151.9313476452535,
            720.6493969190393,
            967.7878510504236,
            927.3014464294391,
            561.1834731512149,
            378.8824698669168,
            -409.36409854333806,
            -349.6853902385479,
            -131.0559261002998,
            14.722359391542023,
            -2.483424182653951,
            0.0,
            4.956426312762778,
            -2.373318439784314,
            221.00083733818173,
            794.7230449448228,
            373.7222636572077,
            -463.9008217376792,
            -755.6686318405549,
            -753.8800888691007,
            -997.6790082555133,
            -897.8799670630938,
            -803.0430623044671,
            -710.3827947930992,
            -2.672412659166435,
            759.471732994948,
            1156.7758550888502,
            1120.5727305841199,
            486.05009779479843,
            133.8423433908523,
            60.34210557184126,
            116.41117369228569,
            -35.77459129536104,
            -170.44649060623453,
            -428.2008872009302,
            -422.0417280782718,
            26.75382396512174,
            -11.695686641694866,
            2.631097725451279,
            0.0,
            4.1689575419177105,
            -19.789230049724626,
            16.09332988894066,
            952.3679949193324,
            878.3401459375706,
            -18.272062456169586,
            198.39874628231706,
            -188.20769805999873,
            -859.7767486085328,
            -940.8570357183384,
            -1632.5198045650043,
            -1730.4640629061398,
            -891.030614504748,
            -986.6137272206772,
            -517.0366969855504,
            -85.32555384107869,
            192.71341683673586,
            -148.31729652913242,
            -457.2723559211713,
            -333.66404346831456,
            -441.68414823417396,
            -674.3730487639757,
            -556.9426365681508,
            -315.84559789949077,
            17.824608610968824,
            -6.5930285180447585,
            1.3442535023474909,
            0.0,
            -1.6336655623917946,
            11.488575407356292,
            135.98406558975125,
            702.6305056963464,
            1025.4862658436243,
            913.7824269254618,
            762.8085414836042,
            317.97108095462835,
            -144.6354496711086,
            -433.19347824326013,
            -1152.8140968917812,
            -1322.153282913901,
            -951.1708922356864,
            -1013.0445827928107,
            -232.19904684007398,
            363.09608824179384,
            419.23372749422697,
            -67.78016906562844,
            -107.95154450891393,
            -520.7392942594386,
            -508.96078967017525,
            -237.17126865260937,
            -124.94835393692192,
            -43.87854450250134,
            5.806555422905592,
            -0.7678571709426878,
            0.08993806647090254,
            0.0,
            0.500247373649269,
            -4.545237733962825,
            14.05148556306092,
            424.2397298172234,
            989.5884189753904,
            1325.2168994375709,
            1354.0016264561975,
            167.31540268289038,
            -243.1597475092111,
            -375.04989853705797,
            -990.2039201431376,
            -8.120693551565694,
            625.0912798314758,
            61.732433186976124,
            -278.23210869936764,
            -733.9289772773258,
            -508.90277103290936,
            117.27544788541444,
            -187.3619565103933,
            -0.5966601321041699,
            38.23515065271042,
            5.836269477141573,
            -43.51901766946729,
            3.433599639226506,
            -1.6063744795152222,
            0.19756232691412748,
            -0.023707436724096136,
            0.0,
            1.8646242318186215,
            -9.79147305159481,
            60.859938053947914,
            202.85478960875417,
            477.54613918132765,
            907.7334593592724,
            1170.289309366971,
            759.7551654933666,
            -403.389440250336,
            -753.3951687130262,
            -215.68320443265569,
            17.664455612162442,
            -476.99291018919456,
            -494.5353905843053,
            -325.32238185028336,
            443.261443526985,
            644.0209809300201,
            157.57767008967983,
            -142.25869573751348,
            133.51532303513326,
            118.72677952569569,
            14.177898009515296,
            14.164125530899529,
            -1.7299720126896017,
            0.6626880415093899,
            -0.10295459892661266,
            0.016261244080267308,
            0.0,
            2.444675166721677,
            -15.153532068823585,
            64.96956662447829,
            -39.65012340437522,
            91.6218383497668,
            158.31709502950775,
            279.88110859725776,
            523.1721223361335,
            80.22664414669592,
            -432.5314825221953,
            -313.4721291844131,
            224.30074350243595,
            662.9165620624085,
            642.5301354241075,
            622.966845415954,
            326.85251400265696,
            112.58732048611691,
            -151.12172341339286,
            -126.4241515799771,
            -66.62389040590888,
            -33.08265034908653,
            -2.8260124219739824,
            -3.653806817089979,
            0.3784377729090475,
            -0.1631604800254263,
            0.022689594990800744,
            -0.0036424252603876103,
            0.0,
            -0.3321018986311678,
            -3.357847779423515,
            13.713800748313764,
            -187.2811931860474,
            -193.71851613467348,
            -124.29248136125182,
            -52.26940604536681,
            -151.01828497451282,
            -157.8470922779176,
            -98.2117745094387,
            -94.78046293570625,
            8.458216730880734,
            47.01616266825678,
            -2.096466723217924,
            -31.86534981440294,
            3.4683634205545997,
            70.56517947613307,
            89.16247920134242,
            67.53797449263031,
            11.551761049909897,
            7.009520784796165,
            0.5025588659153648,
            0.8278429237834743,
            -0.07013724223866329,
            0.01806612158534968,
            -0.0030801170177755244,
            0.0004699761895043726,
            0.0,
            0.059452092334251014,
            -1.357957465345979,
            3.912816414579522,
            0.07886959968829337,
            8.3109715625658,
            11.210805709898525,
            3.2630987727938168,
            23.79378996144637,
            28.423379766948347,
            15.59236006304847,
            11.910392794551662,
            0.40173666393591895,
            -2.629084068564834,
            -0.0018274385004177804,
            0.0,
            0.0,
            0.0,
            0.0,
            0.0,
            0.0,
            0.0,
            0.0,
            0.0,
            0.0,
            0.0,
            0.0,
            0.0
        ],
        [
            -25.35460775288945,
            0.0,
            0.0,
            0.0,
            0.0,
            0.0,
            0.0,
            0.0,
            0.0,
            0.0,
            0.0,
            0.0,
            0.0,
            0.0,
            0.0007651632581578283,
            -0.40154501725960395,
            -2.8619924880973695,
            4.632858935978327,
            17.787424998340875,
            16.526839004836724,
            26.019395584342213,
            3.6961934824925105,
            2.5781634816516186,
            3.1104690499369436,
            0.40920823513023236,
            -0.17737464739155315,
            0.04065626010839642,
            -0.005949406273651191,
            0.0,
            0.003488947332254605,
            -0.019310242185008618,
            0.08430712809258245,
            -0.27486065853340774,
            2.7138204767615255,
            1.8632805246820323,
            -1.0769258054026187,
            0.6457249726428023,
            3.2108547889355976,
            -0.4121562371576311,
            1.84730251749248,
            5.779599764750695,
            4.529740872360897,
            1.735870778489442,
            -1.4942471287833756,
            12.853583295836353,
            -45.59051078672329,
            -130.17828828169047,
            -104.56557917832893,
            -168.14366995037912,
            -27.81176902835075,
            -9.772294206091871,
            -14.093839012435224,
            -2.8035477301452985,
            1.0317626571811962,
            -0.20032276521750741,
            0.034980726375108497,
            0.0,
            -0.033620914852612885,
            0.15315652282055256,
            -0.5709949321327477,
            1.310026546406943,
            -13.400662911779303,
            -9.79542768484019,
            4.983800860874997,
            -2.0915865091361194,
            -17.552330414258638,
            25.202635540884057,
            109.09075515795472,
            99.31336294620996,
            3.9976730289129327,
            -16.30794499294777,
            -109.86813976547623,
            -418.9138370221357,
            -806.6499341883961,
            -746.0264559696388,
            -413.9729702725074,
            -282.7657037266402,
            -54.72337453897707,
            -44.94948239206161,
            43.98916268990334,
            13.770045654297242,
            -4.407562329808083,
            0.7334605417007807,
            -0.15239913951984918,
            0.0,
            0.11984238519459657,
            -0.5884004285477693,
            2.3556948631348087,
            -7.23588625108399,
            65.11291211474237,
            74.53044089537042,
            -12.827472888429835,
            28.324939677167567,
            91.84855877840602,
            216.1491708360913,
            933.858343161417,
            1304.8201470653194,
            1019.3798248804662,
            514.3489903551114,
            123.61858183205914,
            -909.5370333810102,
            -897.8828791075069,
            -302.048637507543,
            -560.1397849002918,
            -955.474363920341,
            -1312.343605832734,
            -1113.7123831473484,
            -597.8979435039143,
            -158.00936565174555,
            10.286075914823057,
            -7.158476864732602,
            1.334430685955044,
            0.0,
            0.3506348050718872,
            -1.938810997271139,
            7.915283538193125,
            -36.16898169537338,
            281.6548081966342,
            504.29158496313744,
            412.224864144134,
            442.61229862922426,
            738.6461210342784,
            1109.6138078956712,
            1752.8675784707825,
            2319.9506814485385,
            2341.198544181153,
            575.6693912781935,
            -120.49044511785097,
            -524.5054943308695,
            -831.4810827466707,
            -923.7485312987909,
            20.387304486907603,
            -163.74916006568944,
            -1949.1658138041435,
            -1738.8868566528533,
            -1398.7679586132012,
            -771.7831366816841,
            -153.15290591968386,
            17.443949398680218,
            -5.074452463635206,
            0.0,
            0.1086975234778721,
            -0.009435582508820243,
            -1.8843184454418223,
            79.9140642143088,
            664.0713651519233,
            1271.9070408454509,
            1109.7854961406115,
            863.1028952222939,
            1491.6370357338144,
            1738.555509323467,
            886.7378605758889,
            936.2883281145844,
            822.2844560578421,
            1335.6780940309282,
            1133.8242459412477,
            391.36042492012353,
            -642.4872297113153,
            -967.0373151914558,
            -205.90974222171928,
            420.74663168549733,
            -970.3912173672618,
            -2025.1940059725466,
            -1978.5787259965975,
            -1770.2141961224097,
            -867.3043370040518,
            -9.794721818991876,
            1.7730019599874622,
            0.0,
            0.40808474919676513,
            -4.478100449202294,
            30.792839811964555,
            414.73985609120336,
            1517.7537938530154,
            2382.8578014790282,
            1889.9496598183714,
            1014.7234765981029,
            616.3116641818963,
            686.4399039740708,
            -472.3648149831074,
            -695.0105690934098,
            -272.78718416734296,
            -547.4359505928275,
            797.1387831137929,
            1534.950937265925,
            205.182293621424,
            407.3225309571284,
            -581.0000260159642,
            -82.21760074162056,
            -149.80648316842579,
            -1953.3332122781237,
            -2283.4151083760676,
            -2368.5326928213817,
            -1691.851631511706,
            -365.8426507977559,
            32.66871403960732,
            0.0,
            1.103315764283196,
            -6.914654940357666,
            30.990601120975334,
            647.4041867900257,
            1591.0514646017043,
            2508.293514215284,
            1324.7637411395187,
            462.7468752986858,
            -257.45216413302484,
            -142.0636813618468,
            365.1812606650574,
            444.288044660595,
            963.4845510214419,
            162.38399833896253,
            429.6310338967277,
            623.4714919881158,
            -576.0056536465892,
            -583.3325434916063,
            -830.3446948581852,
            -785.6797976768148,
            -634.815089357494,
            -957.1937286602374,
            -2844.987983860777,
            -3629.715221026588,
            -1915.2523548091112,
            -586.4212995681588,
            56.25846690627284,
            0.0,
            -4.757914254198497,
            23.01545177582024,
            -85.57315641635913,
            744.8060305903696,
            1876.3455170228265,
            1671.182899662795,
            278.06879563817904,
            86.846306533222,
            347.09683783179906,
            456.66505614031206,
            -487.13756621647127,
            -722.2118415246237,
            -373.30373728892454,
            -903.421505193711,
            2049.9292863836727,
            2902.165691332819,
            2275.8998195880636,
            2074.6585508787566,
            645.3837649057933,
            -398.20250224909654,
            -390.0272357745444,
            -864.2268856982892,
            -3362.685596474903,
            -4342.859375957909,
            -2507.735240426893,
            -617.1299212466374,
            56.38447879574156,
            0.0,
            -2.0365742560319533,
            9.36101091264404,
            0.29144770182955154,
            624.5638957745728,
            1223.5136475849501,
            701.0392996612197,
            194.02131027559653,
            -584.5851965912054,
            -192.37478993459519,
            -1083.107145212443,
            -2517.7920360520584,
            -2810.134064296263,
            -775.1890417771338,
            1077.8863552968905,
            1735.6084716067899,
            1630.6376385019353,
            2556.1192835217194,
            2843.191076346606,
            2091.1509891055066,
            1571.8250900127218,
            1767.780158133255,
            -202.29524901397835,
            -2241.9460034443678,
            -3624.6009953940975,
            -2327.0941059962647,
            -604.2289279943349,
            46.85468609435367,
            0.0,
            3.1457649826730463,
            -19.03253993069116,
            100.35805862339335,
            620.7228033153264,
            803.0661022937218,
            582.8021259167793,
            -73.48498754935785,
            -1383.6039014439789,
            -2412.190173831487,
            -3135.1286942291285,
            -3166.187825877397,
            -2607.774573251988,
            -1721.913218464782,
            -1118.82077187151,
            825.4293915304411,
            1044.9694540593741,
            2259.4699221795113,
            3139.9535480933177,
            2863.8781429429955,
            2557.740913787458,
            2236.1180801948185,
            175.35026541798254,
            -1872.4927935198882,
            -2341.323218798218,
            -1365.123907039958,
            -565.8475347149416,
            45.68323650940731,
            0.0,
            3.4519964002805974,
            -25.300963725566366,
            104.46338855524716,
            684.147903005216,
            586.1992386787608,
            188.34057954588064,
            -519.7411376493295,
            -1465.2417549271095,
            -3535.855864147318,
            -3842.1642505737173,
            -2558.099912068008,
            -2430.7282989241303,
            -2345.4084115644614,
            -623.0464499814677,
            1751.5073861960432,
            1939.641709919719,
            1715.681348844152,
            2413.1859372205754,
            2334.2043372657795,
            1755.8208792484152,
            1047.7049904791743,
            -284.540440080908,
            -1091.3314618861364,
            -560.9658167172537,
            -185.0872974803274,
            -7.221236332304162,
            -1.0359415522475413,
            0.0,
            2.2405471392687932,
            -19.38310355437579,
            76.87465842537024,
            537.3196908434174,
            125.4442472284642,
            -773.7761484971849,
            -1989.7387295683316,
            -1855.902910504233,
            -1390.0841391914735,
            -843.2461859510157,
            -780.2165835748605,
            -1013.7424925994557,
            -615.2177714425736,
            -258.3604061541942,
            1580.4728440403353,
            1438.1934375170285,
            1582.9843229127769,
            1559.633510807816,
            1526.4842986383737,
            1017.7281922909382,
            -360.0197535833785,
            -853.5952074123736,
            -656.2613221491106,
            179.87538340391012,
            99.82275516905798,
            -4.014427048866287,
            0.33798663045675886,
            0.0,
            0.3755076716364506,
            -4.216435815116054,
            11.878553602114563,
            234.0865266947018,
            33.68142718647183,
            -985.6696216279179,
            -1983.4511079368851,
            -2092.179619400207,
            -260.84933760032004,
            -44.557362879777784,
            -804.7807689232573,
            -1489.5898147542998,
            -877.3944262471902,
            -73.0106488340885,
            1030.4324637334996,
            1688.9630354352873,
            2320.18692173262,
            2060.87947690456,
            1548.1683090010658,
            110.24700904173736,
            -399.1285909865346,
            -608.0996900368242,
            -351.63865554970516,
            319.21384279442157,
            -22.35935236190006,
            -6.793274612969729,
            -0.05228373379504693,
            0.0017516858273735427,
            0.001063473442791341,
            -0.07974788859507662,
            5.110675057983568,
            -15.48676896434533,
            -127.26356081555265,
            -340.25043531569315,
            -1074.690364505173,
            -2672.6570967650364,
            -1222.0993754736728,
            -1133.1497567990846,
            -2281.73229053185,
            -2351.979822759685,
            -585.0462696573148,
            538.8223560473228,
            1022.4229721100114,
            1650.393540786521,
            421.1653587916021,
            1877.9731441587949,
            504.38597499215484,
            -1358.138814601427,
            -166.1606729450813,
            -46.25823574449482,
            50.059994851374306,
            48.67551632177554,
            113.35607905469507,
            -38.8306035193023,
            -10.503178876949788,
            1.0022486366120589,
            0.0,
            1.403259782065789,
            -72.42468781402414,
            -162.46473171767408,
            -153.86783727133127,
            -208.51683900725283,
            -582.3600114465396,
            -1359.7856454963962,
            -549.1904570741419,
            -573.9175044532269,
            -1486.5003398709046,
            -666.1742721704225,
            -52.972348654781726,
            2321.3320486607968,
            2974.1209788904134,
            2123.631997689856,
            -100.59350366550207,
            57.83166718985011,
            259.2354180593546,
            -1432.2393473547945,
            -408.42558170684197,
            517.323116399626,
            842.0348443113982,
            436.11468736262844,
            247.23325258791294,
            -3.003840914272786,
            -15.232668164717568,
            1.7308834150320016,
            0.0,
            11.519367100679046,
            -174.10824037951298,
            -65.87019281948541,
            173.96394268824676,
            -78.28532719307198,
            -631.4063113330577,
            -278.47150375052206,
            153.63169293386343,
            -163.44887058386038,
            -1103.2058712220148,
            -747.154100718819,
            -97.22541127724871,
            1783.797339322616,
            929.7660795519668,
            -1563.5397028561945,
            -818.5188097117941,
            -439.7811561275795,
            35.385133779509964,
            271.82230430507406,
            -567.9537625854439,
            219.722449016037,
            1481.6688787626397,
            1187.462876045231,
            47.75086130372591,
            -44.20386749622793,
            14.946805444849998,
            -2.337484316346788,
            0.0,
            -9.601453582176509,
            78.34175831432785,
            273.24237023150545,
            932.7526271824362,
            572.3669567222803,
            -674.6247016203507,
            324.41558289566,
            242.1030657196154,
            -443.6524345423506,
            5.451488648342366,
            834.4242898985366,
            923.9587201432836,
            316.2413831480747,
            -994.8600309098383,
            -1752.9289125316352,
            -680.2583072899894,
            -511.66565484466236,
            -240.33974520412863,
            885.6562604041374,
            219.07581907726637,
            261.8679418219642,
            1517.2328190482106,
            886.0074863990108,
            -363.830990354228,
            -95.8538122724972,
            18.258781093404654,
            -2.6919055696896126,
            0.0,
            -12.926114766364798,
            110.74826460651228,
            612.9244380014795,
            1597.5202547555864,
            210.5699097877214,
            -1598.5424762519206,
            -913.3883694942992,
            -337.9714290190646,
            -922.9715199940092,
            -752.3903142220817,
            -287.9940430606254,
            -445.46515730728436,
            -1322.359599535437,
            -742.2731034705678,
            -919.2586197406284,
            -422.07811005159414,
            188.53729258501713,
            789.7103771355365,
            1854.5711125289395,
            1550.3451234696029,
            672.4901455379755,
            888.2412353305338,
            -81.60373477260275,
            -501.470068070558,
            -91.47807761590713,
            18.527057338337915,
            -4.363003755288411,
            0.0,
            2.874658762040562,
            34.281812560995505,
            697.9976140888716,
            1019.1949911369408,
            -585.1456864459408,
            -1393.6814003239845,
            -1264.578557573538,
            -879.7610535075164,
            -1024.3904483754216,
            -1258.11247346612,
            -1132.1847348002073,
            -853.3724263199465,
            -372.45718285955405,
            -197.14705809651036,
            -14.411453472009793,
            578.3221983360705,
            1507.9823357632285,
            1047.775033648509,
            1282.9602218654313,
            1243.0897088051809,
            990.550360525209,
            437.16676400405333,
            -502.74146192161186,
            -294.38719003070275,
            -159.6090541084023,
            18.233640363902232,
            -3.137539280115032,
            0.0,
            17.135914184139,
            -79.71645387625209,
            122.31200206483834,
            810.7927714980889,
            398.3232031152259,
            -412.21143992097507,
            -714.0998373427593,
            -449.37647877088455,
            -847.4742926451081,
            -800.3590812324411,
            -805.8598793233529,
            -1162.0938250120155,
            -337.62054228588164,
            945.2809093189804,
            1351.9080814970646,
            1232.7560566895222,
            171.06532370833523,
            66.9888230405556,
            50.6568617857887,
            252.88067706184148,
            216.3782053695367,
            -358.23557927991163,
            -471.19894999877806,
            -487.0297814022731,
            28.297371979059644,
            -13.642361358999816,
            3.1311168648013936,
            0.0,
            8.129995734060211,
            -41.571870097055466,
            -48.06282738889574,
            1002.7185479727474,
            1069.8591748315148,
            69.6631517412659,
            143.126892040637,
            -226.28654052101683,
            -912.4403390677653,
            -778.8373579496166,
            -1840.488742644665,
            -2100.4557895888793,
            -1006.2034492083114,
            -1155.796335254883,
            -644.332229519316,
            -191.52274657641254,
            -57.56386857880278,
            -310.0428372353153,
            -504.59941226724817,
            -94.56779197724042,
            -521.0442645438968,
            -1136.9742860709848,
            -745.3350115986138,
            -388.0155580540824,
            21.05103143334357,
            -7.771979371367374,
            1.6376966206386059,
            0.0,
            -2.42844933687558,
            16.277914905947043,
            177.98521668616186,
            691.1387599185489,
            898.5967467600009,
            895.0226554776743,
            740.971441198604,
            393.7120321252546,
            -111.6112115993088,
            -504.26280102935124,
            -1294.90707010165,
            -1740.0619494789255,
            -1035.4343203048165,
            -1074.2711313674267,
            -404.5916672454857,
            383.93727187665866,
            291.73165746604417,
            126.52157488501445,
            498.5395075845544,
            -434.3392918788664,
            -841.0579395409142,
            -470.45948374201447,
            -141.26838964914225,
            -65.23537141450772,
            8.571727878580441,
            -1.3544057871670456,
            0.203293633717001,
            0.0,
            0.5133790882056293,
            -4.814388074062462,
            8.994670845981725,
            479.27601128882617,
            1056.966085308698,
            1393.9294629612434,
            1160.8739998929761,
            54.51665143111891,
            -207.27015632082922,
            -333.04656624590865,
            -1240.0316969473843,
            67.73109136386032,
            707.3386665678354,
            49.17238435694895,
            -298.55256256038535,
            -1223.6971823724407,
            -740.3825942858354,
            525.8956568394503,
            55.620879018573774,
            -43.72491833933307,
            -71.10671859702727,
            -0.01932591492057023,
            -60.48137673483402,
            1.0146705813679866,
            -1.3829080511486629,
            0.12217328121704285,
            -0.006733555708983779,
            0.0,
            1.1944337488602979,
            -5.321916594725715,
            47.26495162698099,
            271.3369952296178,
            647.1597731356264,
            1161.3761078527393,
            1357.2595777790305,
            991.412988837291,
            -355.57472407745524,
            -996.6558450793216,
            -626.7837452080427,
            -186.3829231424888,
            -836.410098256147,
            -834.7296307146158,
            -541.1931704964069,
            388.7325988586939,
            927.7122149106058,
            328.35937637703427,
            -183.78562116432644,
            81.86419059878162,
            119.84194482615945,
            38.13115689407471,
            24.829781983546624,
            -1.8568762811836312,
            0.782585009483166,
            -0.12062180664562937,
            0.017607840154190344,
            0.0,
            2.528092909053245,
            -17.292933957866595,
            75.80725839362135,
            -135.3676569406671,
            177.8936485071322,
            398.1289776523729,
            523.9778948234257,
            864.1692541341865,
            217.6783733088538,
            -541.9174562510912,
            -504.98313215630674,
            88.23958435259308,
            584.0534930223773,
            859.6146869403001,
            800.9833650736706,
            477.16255802002684,
            115.68738273961596,
            -90.48893427636598,
            -142.08608319723226,
            -121.14920124031889,
            -43.79113808415165,
            -8.079228882899029,
            -6.4432846498084135,
            0.32714302654825433,
            -0.17679579358303388,
            0.02183417753579243,
            -0.00266710572307958,
            0.0,
            -0.3539268233138576,
            -6.783872126295771,
            27.855773118693847,
            -296.3956652491582,
            -308.95659613258823,
            -178.02356557005356,
            -72.24646051922834,
            -142.50315102806357,
            -119.21051270224345,
            -18.493633987905582,
            -79.89783535762948,
            -2.7319730505343407,
            35.556965017702545,
            -6.91514985080625,
            -39.39144399244248,
            25.81019898402088,
            184.52220283701905,
            186.83082768787204,
            142.90572816096173,
            20.550750001610435,
            9.782449319898767,
            1.2085988638095126,
            1.4796525748442564,
            -0.05827636712603539,
            0.021095454678030087,
            -0.0032123169499365064,
            0.00044711620454085903,
            0.0,
            0.06449717132470591,
            -2.03066871508309,
            5.6235452832685935,
            -2.889932099726918,
            12.366640979728938,
            15.944646648781854,
            4.9286182817367,
            24.31431681057436,
            25.056606497573224,
            2.948686685336779,
            8.098253471670942,
            1.6806843592687497,
            -1.0865054713316824,
            0.082833207740853,
            0.0,
            0.0,
            0.0,
            0.0,
            0.0,
            0.0,
            0.0,
            0.0,
            0.0,
            0.0,
            0.0,
            0.0,
            0.0
        ],
        [
            -33.96795090351181,
            0.0,
            0.0,
            0.0,
            0.0,
            0.0,
            0.0,
            0.0,
            0.0,
            0.0,
            0.0,
            0.0,
            0.0,
            0.0,
            0.0035526995829454353,
            -0.24282218674548414,
            -3.004474646867728,
            8.005251985878743,
            26.790293010166025,
            23.532033323124057,
            35.8059103646711,
            2.225862621023674,
            -0.31878163270683213,
            3.139289444600848,
            0.48969587594261643,
            -0.1943990722080361,
            0.05118093536501339,
            -0.007585401876630484,
            0.0,
            0.005068250404325621,
            -0.02818329960409975,
            0.12405486989862509,
            -0.4308186793547534,
            4.075195461601999,
            3.291548226376552,
            -0.7207363597314469,
            1.1753900201505634,
            4.221698088112963,
            0.8870502307963718,
            4.413742225120152,
            4.508314601232485,
            4.291581262073817,
            2.175735635458572,
            -5.642341015666227,
            9.980203254429648,
            -72.11956356252496,
            -192.8595712150894,
            -151.11478867622984,
            -235.01745716110707,
            -27.175379764745713,
            5.084720148762207,
            -13.563788032444275,
            -3.245795788410958,
            1.1551662806929492,
            -0.23638535495884255,
            0.044956253413997546,
            0.0,
            -0.05608092997656679,
            0.24961905954031308,
            -0.9099404625670815,
            2.237924399052967,
            -20.900285357662213,
            -18.70190322570244,
            1.5419356885799194,
            -4.800513767154196,
            -22.113731178500693,
            20.728776948447287,
            99.04599621743084,
            107.27399531241159,
            6.114367946025501,
            -18.930223501316885,
            -105.98064457530813,
            -477.89097650652116,
            -986.8397347862943,
            -944.3362000354595,
            -570.0807397837037,
            -424.0310637636122,
            -141.6157938879295,
            -176.29734245180165,
            28.13544999308517,
            16.004609294010265,
            -5.0116181123156185,
            0.8451026576870243,
            -0.20382931600845303,
            0.0,
            0.1934953936379889,
            -0.9294346909769712,
            3.6625730208939755,
            -11.658444918767035,
            99.36639719353799,
            124.83580703669537,
            6.725363667091442,
            43.100936800884256,
            114.56549397700049,
            247.1568579357096,
            1099.60796869534,
            1433.7738603195507,
            1111.9237519581618,
            674.2198851549916,
            377.31494940616295,
            -852.5272796843831,
            -953.8518636222107,
            -219.4877669099155,
            -580.5700776855414,
            -1022.9406689023385,
            -1628.84803063146,
            -1315.179922203491,
            -692.9127529256544,
            -194.02215650390409,
            -17.80982690277448,
            -10.952850925531168,
            1.9767716971012166,
            0.0,
            0.46360888988297255,
            -2.5805949327269033,
            10.43484147956118,
            -46.59740436116822,
            476.70840920802806,
            771.2496115598841,
            634.3832388512186,
            547.4789799978447,
            792.0522542006465,
            1216.1514959599335,
            2120.9387014685713,
            3039.3224323128443,
            2825.223920988325,
            531.5882140742872,
            -352.8443746734064,
            -602.4708101304159,
            -881.4847936117809,
            -956.8469837235757,
            346.84318644775175,
            13.119892285697002,
            -2052.895766596728,
            -1709.3070749377637,
            -1636.6298983501792,
            -972.97475235383,
            -201.98722628275218,
            16.598713442164236,
            -5.9623940381287674,
            0.0,
            0.18738388959411806,
            -0.2972521664463133,
            -1.0166790413481275,
            90.22220802952435,
            876.0110654478473,
            1564.3306355921166,
            1349.5415083180549,
            930.4047118528823,
            1550.1385070677186,
            1979.6580559708536,
            1023.1436460675154,
            1062.3673573820183,
            830.3974701454039,
            1310.3598967746611,
            1095.1241257373645,
            423.8853490772216,
            -649.7102776702567,
            -1062.3607545335176,
            -144.28563120383512,
            285.23739088938396,
            -1015.876298634967,
            -2021.462018977229,
            -2231.069304338477,
            -2151.165700350988,
            -1005.7874595097841,
            -4.576884249238907,
            3.5193126545894096,
            0.0,
            1.0491041366351483,
            -8.415159015373131,
            50.8948514095706,
            480.1443379221,
            1831.121055451675,
            2839.6368833834313,
            2212.501958981663,
            1000.4297284109085,
            492.79154766338246,
            858.4254436654065,
            -547.3287164490764,
            -710.3095506771158,
            -73.88055128354472,
            -686.5484127220205,
            653.2518935212456,
            1576.6200755812338,
            32.33377057491278,
            675.3271902189553,
            -486.4003941409294,
            -201.03355902301382,
            -280.8576090930902,
            -1991.9599427984583,
            -2200.440373421687,
            -2554.9432965304864,
            -1980.130637430483,
            -465.38321455712116,
            28.395938047869688,
            0.0,
            2.2468703933149037,
            -12.966555978685497,
            56.1855076987363,
            766.3399371513282,
            1768.690488870246,
            2951.6477145203153,
            1614.6832292783297,
            496.22668768738885,
            -299.35192637800094,
            -133.09795928566953,
            419.938394918961,
            485.04033908884,
            1159.0406014265704,
            68.06312533380155,
            294.139508769458,
            665.5578400098816,
            -612.644102842779,
            -495.2886023475314,
            -768.5237772211326,
            -1019.1702306351486,
            -979.6277042444711,
            -705.2644012836003,
            -2785.8693620247077,
            -4144.195092489047,
            -2312.6723985854096,
            -745.5601469165646,
            58.02555426061774,
            0.0,
            -5.455458536808756,
            26.66201602533805,
            -99.00216494565696,
            943.8128107480577,
            2208.8671485802815,
            2008.721108742951,
            377.46129437907825,
            11.472026307976073,
            494.1432045685354,
            675.9404531496459,
            -612.6743417755098,
            -852.0460416454599,
            -230.19789034697976,
            -1167.4565627008983,
            2250.892492654101,
            3292.514790497712,
            2557.401702592774,
            2389.0309463845624,
            659.6198873278586,
            -927.9201540084573,
            -764.9469151649186,
            -746.2696673408265,
            -3879.7925244458806,
            -5282.615366467133,
            -3087.0466517742993,
            -820.8808890953162,
            75.8353821299809,
            0.0,
            -3.06385949499243,
            14.426005593929473,
            -12.147802607066684,
            825.4578237272387,
            1526.4029764472452,
            840.744847850868,
            268.3215871667384,
            -677.3250382757021,
            138.88124726219576,
            -916.2889514539636,
            -2860.7682102878257,
            -3288.215358954995,
            -820.7754795860134,
            1111.5572100735274,
            1641.3776725207981,
            1643.2551734927245,
            2954.2253146710655,
            3468.1028435164476,
            2506.387868602134,
            1581.7487823969564,
            2155.929637344164,
            7.522257089407558,
            -2682.541338050999,
            -4684.572724355427,
            -3107.5662947430496,
            -829.2277278945436,
            63.85180448928915,
            0.0,
            4.166636342696083,
            -26.532460843896168,
            137.8953859131783,
            833.8332068053248,
            1073.9288989406043,
            867.9079760649905,
            20.79646811859795,
            -1423.665772762586,
            -2568.187573255636,
            -3374.2397738446307,
            -3329.5176811207525,
            -2621.9515857469682,
            -1812.0111656426259,
            -1196.9547391837675,
            1087.437506475795,
            745.7167035881669,
            2329.550868236201,
            3803.1706252904155,
            3359.215607731068,
            2983.4612971449174,
            2931.2550355532253,
            414.7419124640879,
            -2317.3477203250395,
            -3199.4240197794948,
            -1827.8520790779687,
            -685.071983712664,
            52.19715975838419,
            0.0,
            4.952450207282585,
            -37.07770739360395,
            151.73650715048782,
            988.2280676707135,
            798.659119948713,
            262.24874369904404,
            -597.3194349625669,
            -1407.0853224047034,
            -3860.4190400540756,
            -4050.203193465643,
            -2393.9748178626846,
            -2354.487304654853,
            -2172.937875733174,
            -620.3590685671377,
            1806.0968539992136,
            1703.029790281161,
            1567.8129699349254,
            2781.341523259147,
            2541.8450826047133,
            2142.6101637312445,
            1430.966125399752,
            -267.080069006418,
            -1369.7280041633687,
            -830.7661298005819,
            -272.8129635164035,
            -1.8437706585941092,
            -1.9299325122503956,
            0.0,
            3.0096028740514282,
            -26.72728503429661,
            105.4923680515757,
            800.9649927955792,
            304.8483971924631,
            -955.085713275531,
            -2610.136922068983,
            -1917.26417156937,
            -1304.3753621812193,
            -881.0218593939348,
            -730.4351052247972,
            -1174.105758186488,
            -582.9073370127143,
            -182.18773777798899,
            1808.3194490694407,
            1670.6728296699791,
            1760.8969930963053,
            1704.0763632638177,
            1958.4985007182022,
            1328.6786984744408,
            -494.4956866893001,
            -1089.1533322945827,
            -728.9001250234767,
            246.54210720648766,
            107.27587360616705,
            -3.774127969532829,
            -0.01966608415016448,
            0.0,
            0.492329831347339,
            -5.775398269855931,
            16.656088608036676,
            336.84072166729965,
            148.8009537486868,
            -1085.888435280831,
            -2515.0067512403243,
            -2354.4729469764175,
            -195.77642424875106,
            -95.59016558564389,
            -1023.2388393465142,
            -1725.7454935140656,
            -989.0373953411386,
            61.89872910307952,
            1107.6119887953535,
            1918.1996812532188,
            2507.1275835104425,
            2184.954737362662,
            2054.9499510407527,
            113.15867901357466,
            -843.1892260045174,
            -831.4216779585377,
            -535.9774414472017,
            472.07713810139774,
            -59.45065044717952,
            -8.945596617673232,
            -0.07563018523745298,
            0.0023393616264714176,
            0.0020229037735289023,
            -0.14130683504502406,
            6.849973188381217,
            -15.143483172059806,
            -153.70476769402669,
            -314.7082534942353,
            -1401.853672603194,
            -3052.135141824589,
            -1031.9586026805623,
            -1038.6435760845106,
            -2518.6879776497863,
            -2605.7348439172533,
            -792.834385894987,
            605.63773189006,
            1265.5186133203606,
            2194.7570699955386,
            519.1694163692741,
            2076.4517491129313,
            431.0480025208856,
            -1617.5143758150757,
            -486.1010136958321,
            -329.78787683459836,
            -59.446691045569025,
            19.571624861606313,
            146.34968653492072,
            -49.53742739272391,
            -14.741984646883258,
            1.4404782625113266,
            0.0,
            2.1041615140670658,
            -97.23925813773565,
            -204.00672018887894,
            -198.4292445933747,
            -287.3687729826365,
            -902.187239090437,
            -1663.394083220501,
            -409.0301291307419,
            -412.60199389730394,
            -1555.6163294663786,
            -736.3028783621057,
            -225.5772808160749,
            2536.249488231015,
            3563.881369048934,
            2536.9396886294808,
            -271.8466098488043,
            -93.25753748949295,
            289.3641853454994,
            -1691.4262476377864,
            -299.18850382446794,
            556.4437287465905,
            891.3070586247376,
            449.42058854622707,
            403.97442730895517,
            18.042494275972427,
            -26.46604657747146,
            3.249729834535449,
            0.0,
            14.392272463858056,
            -230.93013213571564,
            -164.39300777902446,
            215.60137044908998,
            -164.779094461864,
            -835.4670692500633,
            -239.07112968107822,
            265.5196876142753,
            181.08654680694283,
            -1390.9544589062511,
            -828.187538273225,
            -165.42395814021594,
            2001.0287453895469,
            1042.8075409247867,
            -1887.1782561964217,
            -910.2051756056396,
            -685.2360841633538,
            -120.20649550129086,
            115.2899807866996,
            -584.861055171319,
            364.5120813460156,
            1676.2604978890743,
            1240.159344375004,
            132.1730523522648,
            5.8834098701016435,
            4.072197778976619,
            -0.5191191389214481,
            0.0,
            -10.639039701620892,
            60.03680558566788,
            148.4691240638395,
            1124.0652245440165,
            729.6133595477583,
            -887.4046661910406,
            696.2251042575359,
            428.68166554743766,
            -341.94447289634417,
            31.896667249554188,
            1061.4359850999056,
            1134.7775797734423,
            400.7497405586548,
            -1250.0331539834738,
            -2098.6545196839998,
            -623.3412667046252,
            -453.52710084317897,
            -408.8751748750081,
            708.6113468016796,
            142.87479582792042,
            407.9314602360219,
            1727.1105784344586,
            942.8498389905524,
            -390.5532055158636,
            -61.148904673435595,
            10.185099389164348,
            -1.0056440155392614,
            0.0,
            -11.296113623644665,
            76.16869000081688,
            547.3158135956426,
            1779.2497683319104,
            164.14468469231466,
            -2058.523850686552,
            -1046.7495391885743,
            -291.89710456933136,
            -1410.6550364263608,
            -1167.9498042380892,
            -548.5099898447914,
            -637.4555977473033,
            -1512.4905725301471,
            -732.5610782739462,
            -1057.537084558094,
            -407.4185787718994,
            464.3844558754565,
            1011.2254434123644,
            2068.694067856034,
            1629.2551118817432,
            836.5358907790642,
            959.5081900476698,
            -167.62212599956862,
            -491.4132260649094,
            -76.73289302568396,
            18.0095702556716,
            -4.75011363746771,
            0.0,
            9.780691422208964,
            -19.859754220927577,
            717.769558274475,
            1043.3623842901736,
            -870.4138698491103,
            -1733.740558158816,
            -1462.0064810761876,
            -1062.0639484944588,
            -1089.125343293844,
            -1204.297033950624,
            -1310.01967251745,
            -1100.1865215812402,
            -382.7486108703041,
            -110.80994413958457,
            -24.461326847020764,
            740.5646414879676,
            1925.9357988785127,
            1309.8880792703255,
            1496.1755365915035,
            1318.5759189615092,
            1128.6223054994623,
            359.60085429922793,
            -504.95627805286296,
            -225.84793604054985,
            -224.35944497303228,
            28.272160492988384,
            -5.036054869382206,
            0.0,
            33.66835118620452,
            -184.1197725744675,
            4.627337186850196,
            925.3444151594954,
            592.5503469822082,
            -278.8346083356051,
            -714.210010830775,
            -402.30132930823135,
            -743.0916856645576,
            -564.6546953552838,
            -705.9080353200723,
            -1380.7266042996778,
            -619.6273693215599,
            961.4095582479947,
            1497.2236428334331,
            1307.1597251320939,
            -156.94234375607303,
            -182.52860333459472,
            -76.6123339434517,
            90.50456057681048,
            170.3162443757925,
            -561.3585583277022,
            -435.9287364222237,
            -572.7746596800042,
            28.385694961722788,
            -15.965230040651903,
            3.80566688357014,
            0.0,
            14.990610309825762,
            -79.91064226047493,
            -138.06640544957094,
            1056.2461274379812,
            1300.34207887379,
            329.4076760662989,
            92.85540165665051,
            -454.0080753886761,
            -1097.6801499264227,
            -737.0344943383898,
            -2086.3088398802415,
            -2528.125781911589,
            -1342.117033383125,
            -1348.661319110749,
            -663.2890572239143,
            -369.7681579062571,
            -447.07389708838616,
            -655.4517627247038,
            -841.6651881260855,
            -213.08220795085805,
            -702.6512694892886,
            -1463.927396340056,
            -883.8602404610191,
            -501.6975265363845,
            24.870894528756896,
            -9.556415860308793,
            2.054217780024157,
            0.0,
            -1.4062645074414137,
            10.022472079890209,
            208.56633947097174,
            703.4959685977071,
            782.6670844838857,
            1068.7145894793093,
            805.5995916122058,
            287.2796362959106,
            -165.32536712124892,
            -556.7988761603491,
            -1401.45933834103,
            -2125.646419365729,
            -1012.9477853906308,
            -1103.281008443937,
            -517.7189911697438,
            543.7400381925804,
            271.6509044242368,
            134.06059096649184,
            864.090840975891,
            -320.488673278835,
            -1061.570591868111,
            -592.689349381035,
            -176.9943805703262,
            -94.73053134499818,
            12.013783581495199,
            -2.014630864965431,
            0.32770408110008853,
            0.0,
            0.629937345628103,
            -5.4222511580396535,
            11.431537858032863,
            519.370297777902,
            1044.388096036626,
            1486.5407149303642,
            1062.039162311927,
            -192.2091438079487,
            -187.35488036764167,
            -191.68948424165455,
            -1300.184604887745,
            171.26556538329078,
            880.1313927454601,
            44.010096975544634,
            -134.45236590947792,
            -1443.920114622556,
            -967.9316671698137,
            796.2826135711932,
            321.5237599340346,
            4.249618496953212,
            -164.3337955568393,
            -20.32613902684265,
            -97.94522136193847,
            -2.15477654110001,
            -1.1488176612096328,
            0.019431635307259144,
            0.014082491617469698,
            0.0,
            1.518842317329232,
            -6.461320005782673,
            59.05758694428035,
            446.9544159609898,
            735.5226254748063,
            1255.6680790323578,
            1375.7680428767574,
            1038.6650262595078,
            -389.6901837820425,
            -1216.2994102834066,
            -850.0201691255091,
            -197.0716338750762,
            -956.9126638255523,
            -922.3640734132965,
            -647.3488369720761,
            229.64272391465482,
            1075.4794236586054,
            418.89425288411337,
            -336.7657608839386,
            -71.79626855169543,
            78.62837578678099,
            61.45808011215823,
            33.052975866980766,
            -1.6041582155524607,
            0.8464937180924121,
            -0.11189535115086492,
            0.012949049834529536,
            0.0,
            3.316652703998302,
            -22.074404681288446,
            98.16388961400338,
            -158.76876625016786,
            285.72169871251424,
            591.7143489257944,
            678.2547640945206,
            1143.3803003386565,
            346.64804628037245,
            -641.934506573804,
            -657.0261082577166,
            -22.95750662289383,
            381.557901440468,
            792.5901268174651,
            826.8666580239392,
            486.72913248075463,
            9.253252707981169,
            -164.50269129264598,
            -189.45830191945024,
            -161.92369065442278,
            -53.98957366027696,
            -12.21243714198836,
            -8.702407416168723,
            0.21201139491102503,
            -0.18082638597446932,
            0.013969545102223778,
            3.1273333965343915e-05,
            0.0,
            -0.46547723924745055,
            -9.543077643841334,
            39.321146787370544,
            -411.4474115446093,
            -424.1319563709301,
            -210.11235255518446,
            -75.88827352798216,
            -96.42749542549872,
            -64.00005314858805,
            38.496671295827454,
            -89.196414461406,
            -29.78573241697452,
            8.71470860496703,
            -12.63443863238882,
            -37.22925649035847,
            51.45448416281652,
            285.0237212744549,
            280.36696689057845,
            207.56432006803075,
            26.51748184975075,
            12.138510489199856,
            1.9370796924475377,
            2.0415759989667794,
            -0.03695879261463102,
            0.021686118349450376,
            -0.0028328657417485813,
            0.00033417236828169034,
            0.0,
            0.08508812413365663,
            -2.833859844395998,
            7.8259833084392705,
            -4.634911973258089,
            16.904461062843353,
            17.74252686860081,
            3.4254363891597537,
            19.046219476706874,
            18.304283360699173,
            -5.761573724664135,
            8.403504037370197,
            5.207388858413641,
            1.6128957494826446,
            0.20949292253844395,
            0.0,
            0.0,
            0.0,
            0.0,
            0.0,
            0.0,
            0.0,
            0.0,
            0.0,
            0.0,
            0.0,
            0.0,
            0.0
        ],
        [
            -42.07431084744018,
            0.0,
            0.0,
            0.0,
            0.0,
            0.0,
            0.0,
            0.0,
            0.0,
            0.0,
            0.0,
            0.0,
            0.0,
            0.0,
            0.0030727751206475113,
            -0.03206578659514368,
            -3.1850437661828024,
            9.723900480038651,
            33.8750980272319,
            31.166016038408312,
            45.87242207342389,
            0.4213961270378658,
            -3.658218336717939,
            3.0143358400118614,
            0.5834144268519538,
            -0.21785429108800872,
            0.05715525830294417,
            -0.008624116173541375,
            0.0,
            0.006700799480552401,
            -0.037357242781737944,
            0.1654498142839986,
            -0.5959066477471877,
            5.419240667537992,
            4.85850368067045,
            -0.07753939493054145,
            1.8934270844171033,
            4.189217197903147,
            0.8323151951713869,
            7.008359808014883,
            4.553482613020569,
            4.036944883431451,
            2.7159056408682507,
            -10.547962382893614,
            6.866780013407676,
            -87.02087404987297,
            -241.34041919748435,
            -199.88961107374135,
            -303.7573844162622,
            -25.088252084318363,
            21.80962346243723,
            -12.342647894762166,
            -3.7591749183055385,
            1.2796285072536977,
            -0.25511504730099765,
            0.05147257365300557,
            0.0,
            -0.07860168160617788,
            0.34689033963452276,
            -1.255269758884811,
            3.2152840033375396,
            -28.242523755418027,
            -28.296050267163867,
            -3.3718822934531962,
            -8.713008236194446,
            -21.92304245813185,
            22.390600330377772,
            88.4233566895674,
            108.01459332506982,
            7.745616877423742,
            -21.62117047708417,
            -92.97631758275092,
            -502.37849540126007,
            -1090.011355872376,
            -1070.9080597166774,
            -687.1570201273056,
            -552.3224387418302,
            -229.9998422375326,
            -313.718369536313,
            9.14153288060702,
            18.494695799725974,
            -5.57344266990489,
            0.9104077811953005,
            -0.2428737356083691,
            0.0,
            0.2676581248486197,
            -1.2746787896345542,
            4.995430068865504,
            -16.235436930405466,
            132.94103718844215,
            177.46852679178028,
            31.675663837100288,
            62.82151047151823,
            115.60363468789336,
            238.33616662023562,
            1235.6931046907803,
            1583.0769084924632,
            1194.2517999565182,
            828.0423713907593,
            673.4271248668837,
            -682.8975907786252,
            -914.4459978595181,
            -76.63256758649361,
            -555.3540474944102,
            -1112.7550965098085,
            -1889.089572862567,
            -1458.7435702569765,
            -751.4395099451336,
            -219.2277784743429,
            -31.477480531956644,
            -12.726304438648205,
            2.368278443332361,
            0.0,
            0.5731950525241027,
            -3.201720550357061,
            12.85302514730642,
            -56.62860784966696,
            675.1814899030322,
            1029.9239232333434,
            834.1376781308788,
            605.9507968496947,
            788.2059384503567,
            1247.437754140144,
            2357.721633883729,
            3565.6418247067722,
            3169.9572334048103,
            489.21492924610345,
            -569.6855266571192,
            -574.0828489787496,
            -854.724430361983,
            -996.5615362445618,
            610.956520333371,
            44.91613467776039,
            -2156.7377019652376,
            -1697.5859242215602,
            -1854.2008194973641,
            -1128.298250728932,
            -228.63829410201035,
            14.573345232788668,
            -6.472478560214101,
            0.0,
            0.31555078825981525,
            -0.8479558772317118,
            0.9338539342119122,
            90.92467000042973,
            1069.3743266373942,
            1819.9782700349153,
            1500.937892982247,
            931.0307826839988,
            1635.8189585783355,
            2158.9368885021518,
            954.9716150433163,
            1027.7650598082698,
            653.6393108303761,
            1203.3294472595578,
            1204.0132853322991,
            572.9753891881521,
            -641.497226659,
            -1148.2370681456878,
            -109.53806029766844,
            99.0820368209064,
            -1084.2272233749945,
            -2098.3741917966295,
            -2545.607536657476,
            -2446.824128387183,
            -1090.8499497261746,
            4.435059907064973,
            4.678391324969509,
            0.0,
            1.5007316578114454,
            -11.028714436699506,
            63.53471869101245,
            497.6650128533071,
            2045.4177952804541,
            3130.1984753171355,
            2353.79086344429,
            962.7459313816717,
            415.8056326231494,
            921.2629195566614,
            -807.3889973888058,
            -817.4819642597845,
            94.53494737562288,
            -792.5082095970646,
            630.4792685979273,
            1598.4832115537697,
            -248.9735531685441,
            820.881864166698,
            -443.4386098129914,
            -270.1590144940844,
            -326.5121883631555,
            -1992.3866817952776,
            -2180.5829689185457,
            -2742.3989703878283,
            -2200.679988182353,
            -547.8895167046252,
            22.00996374050525,
            0.0,
            3.0398251262692306,
            -16.942917531922586,
            72.05038657737346,
            824.5920042080161,
            1837.183453000617,
            3210.8159942926745,
            1756.879181226364,
            375.30435671163286,
            -412.25532349070943,
            -256.8159497080849,
            318.49326911853007,
            492.2158260345985,
            1327.3780830731068,
            9.183274380767644,
            223.1691805544438,
            698.2431468812356,
            -720.8582325584664,
            -525.858376008638,
            -723.7699211248507,
            -1103.2580638373292,
            -1090.2547940013083,
            -438.01941195131366,
            -2728.646916508247,
            -4491.14544824274,
            -2610.949561200954,
            -871.8355095664937,
            55.56558019303237,
            0.0,
            -6.244409007242146,
            30.722357283650847,
            -114.81846600967901,
            1114.4341663655314,
            2483.0991532768394,
            2311.9780851806413,
            456.2344683507046,
            -269.5535106371509,
            444.4733152628058,
            802.1081834605596,
            -697.0197069193932,
            -951.1950607052914,
            -91.89556258637468,
            -1350.0080953655593,
            2416.589871992205,
            3599.6410732392164,
            2732.0605297170187,
            2548.165854911446,
            634.7377501932141,
            -1216.290381195942,
            -949.0126219223042,
            -654.9337017724204,
            -4268.501710100443,
            -6014.057747234759,
            -3572.891073353571,
            -976.984514844048,
            89.56145254689959,
            0.0,
            -3.8856999262931633,
            18.10713798578431,
            -16.715593270337816,
            1039.1523377774538,
            1810.1179409567083,
            1003.6139615584259,
            389.5386825536493,
            -819.8180469617234,
            314.93539093860977,
            -857.3858558792452,
            -3028.6453157352685,
            -3613.8269992171467,
            -878.1134742499701,
            1073.7762756594125,
            1450.2899343926993,
            1671.0558881134857,
            3199.230453017416,
            3858.345752491901,
            2877.194388281665,
            1720.7704870324874,
            2495.0711962457103,
            135.9051091657849,
            -3124.5793524229957,
            -5633.950220675481,
            -3763.8903087113963,
            -962.3793342844447,
            71.66671387347222,
            0.0,
            5.409027201820416,
            -35.04614991297971,
            179.92331168825532,
            1048.094236493458,
            1321.7137514118413,
            1192.5751391859828,
            242.3605564195423,
            -1384.3959048091112,
            -2772.132806981641,
            -3718.531105573668,
            -3395.6335894590693,
            -2554.1862245097495,
            -1970.3949536094917,
            -1261.546894501358,
            1581.1086563462572,
            547.4384140736529,
            2113.966695489978,
            4073.7103920735863,
            3714.927049665245,
            3314.7787507873577,
            3489.2859922169096,
            601.9544582762727,
            -2683.664027410068,
            -3932.7564417573976,
            -2191.180312927623,
            -766.302216334153,
            57.25132552119535,
            0.0,
            6.444887328570533,
            -48.43557310567029,
            197.72549151988824,
            1275.9051661130827,
            1031.4380066232175,
            444.3948338097924,
            -527.4710952945635,
            -1216.8059345615843,
            -4145.089564683818,
            -4244.5389062559125,
            -2152.936052106255,
            -2322.2499635891704,
            -2179.2385699297524,
            -733.1575348895572,
            1788.3837409570058,
            1397.2744432206457,
            1212.9544238204298,
            2855.096363687738,
            2545.4094112837374,
            2368.1166965306275,
            1666.7477086191195,
            -298.5328468370515,
            -1578.25441504519,
            -1038.3813793776371,
            -333.57976336392716,
            -0.11915505573701514,
            -2.5358479705991606,
            0.0,
            3.8699748250802526,
            -34.84275282033908,
            137.473602720183,
            1090.2539398184026,
            552.1295073952349,
            -974.0761977103931,
            -3122.3563516725085,
            -1912.1332204666037,
            -1219.8628579595888,
            -904.0219485153059,
            -694.5322086960658,
            -1359.101501458369,
            -540.6406274277437,
            -177.87147492794412,
            1961.5023290133722,
            1888.0683778875768,
            1922.4669303278506,
            1810.7547631294842,
            2252.308635804836,
            1644.3716162002695,
            -576.6585080796896,
            -1302.3719591000888,
            -837.6146683647265,
            262.29687580080747,
            97.83558011436867,
            -1.1173658805344935,
            -0.7084456656405617,
            0.0,
            0.6382471258883269,
            -7.753369363485912,
            22.845477791133153,
            476.9771682391391,
            337.8925430175221,
            -1017.4310939947871,
            -2914.6438118207857,
            -2574.8526983248144,
            -137.09168221054418,
            -37.974891983643836,
            -1063.8851820383632,
            -1774.8160805944694,
            -1144.8096514627468,
            -28.233293629477537,
            1119.736342584038,
            1943.8333821620802,
            2596.10817555945,
            2368.4316995833524,
            2514.18187646858,
            181.36142054129593,
            -1119.0127988683762,
            -953.9056453031981,
            -731.9560434849138,
            562.1919846495796,
            -140.10189076837048,
            -13.581796928154851,
            0.1742913701573477,
            -0.0026932495674080003,
            0.0025309623079547484,
            -0.17300223012003846,
            8.627535705168341,
            -0.7135802649024874,
            -93.96951066835587,
            -155.06699960519637,
            -1536.1322184770265,
            -3278.3915924175303,
            -910.3202814369567,
            -1078.2266209460452,
            -2583.2517994493232,
            -2738.2158412388576,
            -1018.5638313870805,
            609.8353513961025,
            1332.2168891885035,
            2421.6183286545765,
            483.85397910962035,
            2393.62262284162,
            412.19766127901016,
            -1862.9302139390018,
            -750.1525823669517,
            -503.5292289696632,
            -131.32988466574722,
            -100.74965257192066,
            124.15403699813724,
            -72.37305066595816,
            -19.2072669607355,
            1.8999606491251495,
            0.0,
            2.552305677312253,
            -120.25333121601965,
            -252.0923220355743,
            -189.69329568457061,
            -277.12422425644326,
            -1069.2474535046404,
            -1709.7174181647197,
            -254.21004837285867,
            -562.9140495338423,
            -1707.9238895142144,
            -794.3618418274702,
            -355.3882401559116,
            2748.052706733959,
            4117.114181328828,
            2905.3645341667925,
            -376.699965356569,
            -144.3086184197647,
            300.75110973080734,
            -1916.9189031911644,
            -254.27074675858515,
            537.3264220451277,
            887.3163144255032,
            422.9313506624571,
            538.3280910450117,
            30.979813544931257,
            -38.50104465215078,
            4.824743759473018,
            0.0,
            16.752096780616014,
            -280.4458346229419,
            -252.40444181623573,
            304.7418979057272,
            -116.61585197043074,
            -893.5145458774442,
            -57.34080986041985,
            421.04860398563585,
            313.18193029467875,
            -1750.8166534404045,
            -953.6715984543798,
            -250.80293616422176,
            2197.1260700346493,
            1135.7671623566353,
            -2120.74900754698,
            -863.282175653774,
            -852.2836436505513,
            -186.0812944978062,
            33.63550190886062,
            -656.3360602667502,
            420.6627827558362,
            1868.4857778347184,
            1321.8993706355268,
            184.94614758148725,
            42.971154553319785,
            -3.026396268145875,
            0.6398251178049781,
            0.0,
            -12.608300358584707,
            55.04837915724976,
            59.026465190598984,
            1395.8013086011242,
            1010.5944919829068,
            -963.3580153278226,
            1164.716018154501,
            569.0016403480378,
            -399.66058818714635,
            -39.35732923732167,
            1289.8223252856635,
            1472.012964977425,
            614.3245557414606,
            -1424.5180771743683,
            -2399.6410626790916,
            -516.4380789363111,
            -423.2336874929377,
            -519.247998548272,
            640.4516530851537,
            83.71031875814818,
            470.4091956784477,
            1877.738935818745,
            1048.087477625022,
            -430.9073457501958,
            -51.881425469105146,
            7.395848041946668,
            -0.23054329975267704,
            0.0,
            -10.217495103864932,
            49.73256380033228,
            507.92361211934906,
            1958.8225101755872,
            219.67371797906688,
            -2342.7927446023214,
            -1130.5762607978947,
            -340.5096098916291,
            -1940.4460834539748,
            -1573.5031004923146,
            -670.2986777453216,
            -653.3615107176857,
            -1501.7545967804544,
            -680.9073898515859,
            -1141.2430440175083,
            -388.54585142511195,
            615.9572368147099,
            1163.3669858239243,
            2382.1642157933243,
            1729.4523665554514,
            912.1820749961553,
            991.7659558087078,
            -230.46734228092893,
            -468.6153818968596,
            -77.45099833324585,
            21.040805177834066,
            -5.891465943594858,
            0.0,
            17.185762641094286,
            -75.93214176187288,
            737.3650284328736,
            1008.5356536907223,
            -1137.196963235262,
            -2070.8335650454605,
            -1670.7077007319065,
            -1336.0740490503488,
            -1277.1033630957877,
            -1153.7624426977416,
            -1314.142942500808,
            -1155.4631103996155,
            -395.3279568446911,
            -29.818131909576316,
            -71.30057936158028,
            724.4291672584285,
            2216.3292399702964,
            1599.155840378281,
            1807.4847472198237,
            1478.5920073477869,
            1235.8621836809032,
            277.71226549995265,
            -470.7875960702157,
            -153.80062022201344,
            -311.97121409897267,
            42.72733368609716,
            -7.8239774187789966,
            0.0,
            49.89533956882691,
            -287.59795794007556,
            -150.51950792973636,
            996.6804612536797,
            655.2044053976367,
            -359.20446817707744,
            -668.5988996249648,
            -226.52967224022765,
            -740.9552254482285,
            -459.40332736248166,
            -494.1282032456165,
            -1410.459841642286,
            -793.6290895652414,
            956.901584972002,
            1431.34345071619,
            1285.9766248776923,
            -347.9175124466245,
            -280.74060795318957,
            -16.705575716436854,
            88.88339327107454,
            96.91231764794094,
            -756.8177634851863,
            -400.37065502680593,
            -671.858743001945,
            28.16435879469415,
            -18.688223103707234,
            4.560252058397331,
            0.0,
            21.645317803970602,
            -117.729598059836,
            -249.07699105094355,
            1094.7999855743801,
            1412.5407420451322,
            357.81178002083425,
            68.83854338356386,
            -355.1647448152959,
            -1142.6303313889116,
            -718.4765778883507,
            -2094.1244658892847,
            -2701.5425535190843,
            -1450.99807358355,
            -1461.650951045267,
            -602.1208677039275,
            -486.26996545403216,
            -680.089882486835,
            -759.9576737376713,
            -972.2575513263507,
            -301.43202384840174,
            -847.5054687815327,
            -1704.876178170678,
            -1041.656518338476,
            -629.046583859277,
            29.69317443345465,
            -11.930362069438548,
            2.572707222091029,
            0.0,
            -0.3470750989264642,
            3.5888348622095156,
            229.20805223049715,
            747.2711298620319,
            702.1930920075346,
            1084.7006262135815,
            842.2734348658388,
            334.6495333455475,
            -131.31061418886372,
            -638.7611815230272,
            -1408.426769780364,
            -2413.8862805588797,
            -972.6295792442033,
            -1009.5059419197312,
            -594.4288663234435,
            624.9440987728893,
            438.82319483572815,
            356.0837957893379,
            1161.1029862419994,
            -275.1492862594507,
            -1210.2341660181905,
            -701.6211885563192,
            -217.34785997108403,
            -131.09640962284425,
            17.417881198223508,
            -3.1061664164396383,
            0.5351381491635494,
            0.0,
            0.6528091619710951,
            -5.517090030099643,
            12.31487759038318,
            534.6951725071771,
            1012.2661200226754,
            1562.7092102354409,
            1033.1644208693654,
            -277.405431541347,
            -164.82249628894175,
            -155.83632812200443,
            -1446.467220466213,
            144.3685953055023,
            791.82393441523,
            -138.32788387909258,
            -1.8491145299727139,
            -1416.6595092082775,
            -984.0064363038872,
            1034.2515724456305,
            517.5103093570159,
            64.47978218376424,
            -230.67083834694566,
            -50.254877618595856,
            -125.85094308934819,
            -5.40339040432153,
            -1.0963584684096008,
            -0.05060609559082548,
            0.027116860514884815,
            0.0,
            1.617923796079542,
            -6.362251895259676,
            63.023432086638664,
            603.3293198379419,
            769.2833787127043,
            1272.231974591676,
            1372.5447653206181,
            1089.0862068350048,
            -415.60384587623435,
            -1375.6506370395448,
            -1028.740806010073,
            -145.9008659454911,
            -944.3810433004695,
            -855.9280823305481,
            -488.72915373316886,
            281.2161696860622,
            1308.7371982435645,
            523.1665094017469,
            -418.8200053565142,
            -183.3435503418744,
            49.37904556814516,
            82.12146414420263,
            40.43124645861315,
            -1.2348526609641857,
            0.9321456540006503,
            -0.10278199427322973,
            0.008515634739588194,
            0.0,
            3.8368877648660478,
            -25.330862719874723,
            113.94362272361947,
            -194.57713896435246,
            356.5051136268816,
            692.2031617710752,
            708.3695231922878,
            1273.2905174532566,
            352.42101068217465,
            -755.3918767096203,
            -775.492795933734,
            -81.77775761597213,
            286.0112797428721,
            828.8581682598513,
            963.164827148645,
            590.126706471114,
            -32.324116353675414,
            -243.4082903434597,
            -281.1532812814974,
            -212.02078185806715,
            -67.22252512923988,
            -15.904316895925321,
            -10.898023545380005,
            0.10065433262016243,
            -0.19884483735755815,
            0.007376475111574925,
            0.002428241350581837,
            0.0,
            -0.5381377504004743,
            -12.468105881985947,
            51.58767899211726,
            -521.707302818598,
            -542.4642666286159,
            -285.68029894380504,
            -134.46545504142298,
            -99.41238317180097,
            -36.18210517434913,
            91.86673175264058,
            -88.39814187482826,
            -44.99112727432737,
            -10.231387310476451,
            -17.626949551608078,
            -37.58627400624614,
            60.71327774007241,
            337.2484129123173,
            333.9378664225257,
            250.93778119062236,
            34.80266439119078,
            14.910753540629209,
            2.60352763869681,
            2.5552219652693546,
            -0.015250825896934226,
            0.02206670482454967,
            -0.002419140681656215,
            0.00021760307923454427,
            0.0,
            0.09825623959051837,
            -3.6043232405478296,
            9.887306932876797,
            -7.285273889067368,
            21.029631991342267,
            24.547724736434116,
            9.553656804518827,
            20.864335529086638,
            15.511758909931107,
            -14.301570724120186,
            6.984451786698311,
            6.942579538065092,
            3.4722522005828895,
            0.31644617229063476,
            0.0,
            0.0,
            0.0,
            0.0,
            0.0,
            0.0,
            0.0,
            0.0,
            0.0,
            0.0,
            0.0,
            0.0,
            0.0
        ],
        [
            -49.64935968250061,
            0.0,
            0.0,
            0.0,
            0.0,
            0.0,
            0.0,
            0.0,
            0.0,
            0.0,
            0.0,
            0.0,
            0.0,
            0.0,
            0.012316341912512812,
            0.2217376640495765,
            -3.6309618776028736,
            11.205469052178811,
            40.14965882555154,
            36.94975908635571,
            54.31734260114341,
            -2.011809551430223,
            -6.94520106463346,
            2.797681484878371,
            0.6571926960002086,
            -0.2342704889189137,
            0.05624103898953837,
            -0.009927613318541207,
            0.0,
            0.007925861552632406,
            -0.044283214000083296,
            0.1968805394758647,
            -0.7413725729396237,
            6.365292676089511,
            6.032107131665239,
            0.5399798115871545,
            2.7567982685478625,
            4.891658109152944,
            0.9637459041668699,
            8.635134895867706,
            5.133186620521949,
            5.161450102031851,
            2.8375071829073164,
            -15.86865450422284,
            5.95138251828159,
            -100.83099783705954,
            -286.36285513257116,
            -238.99676287529363,
            -363.7761221816467,
            -19.502649442624257,
            38.36026380397057,
            -10.725997428038418,
            -4.169795004364882,
            1.3713263314741844,
            -0.24827148368841506,
